{
  "model_type": "linear_q",
  "n_features": 37,
  "n_actions": 31,
  "learning_rate": 0.03,
  "gamma": 0.95,
  "gradient_clip": 5.0,
  "feature_names": [
    "bias",
    "battery_pct",
    "battery_drain_rate",
    "solar_a_output",
    "solar_b_output",
    "bus_voltage",
    "star_tracker_error",
    "gyro_error",
    "sun_sensor_error",
    "fuel_units",
    "signal_strength",
    "battery_temp",
    "episode_progress",
    "science_a_online",
    "science_b_online",
    "heaters_online",
    "transponder_online",
    "last_action_error",
    "last_action_refused",
    "last_action_diag",
    "attitude_mode_nominal",
    "attitude_mode_thruster",
    "attitude_mode_tumbling",
    "rw_status_nominal",
    "rw_status_degraded",
    "rw_status_failed",
    "transponder_status_nominal",
    "transponder_status_degraded",
    "transponder_status_offline",
    "link_bandwidth_high",
    "link_bandwidth_low",
    "link_bandwidth_none",
    "mission_status_nominal",
    "mission_status_degraded",
    "mission_status_critical",
    "mission_status_recovered",
    "mission_status_lost"
  ],
  "action_specs": [
    {
      "index": 0,
      "command": "shed_load",
      "target": "science_a",
      "label": "shed_load:science_a"
    },
    {
      "index": 1,
      "command": "shed_load",
      "target": "science_b",
      "label": "shed_load:science_b"
    },
    {
      "index": 2,
      "command": "shed_load",
      "target": "heaters",
      "label": "shed_load:heaters"
    },
    {
      "index": 3,
      "command": "shed_load",
      "target": "transponder",
      "label": "shed_load:transponder"
    },
    {
      "index": 4,
      "command": "restore_load",
      "target": "science_a",
      "label": "restore_load:science_a"
    },
    {
      "index": 5,
      "command": "restore_load",
      "target": "science_b",
      "label": "restore_load:science_b"
    },
    {
      "index": 6,
      "command": "restore_load",
      "target": "heaters",
      "label": "restore_load:heaters"
    },
    {
      "index": 7,
      "command": "restore_load",
      "target": "transponder",
      "label": "restore_load:transponder"
    },
    {
      "index": 8,
      "command": "switch_to_backup_battery",
      "target": null,
      "label": "switch_to_backup_battery"
    },
    {
      "index": 9,
      "command": "reset_power_controller",
      "target": null,
      "label": "reset_power_controller"
    },
    {
      "index": 10,
      "command": "reconfigure_power",
      "target": "solar_a",
      "label": "reconfigure_power:solar_a"
    },
    {
      "index": 11,
      "command": "reconfigure_power",
      "target": "solar_b",
      "label": "reconfigure_power:solar_b"
    },
    {
      "index": 12,
      "command": "stabilize_attitude",
      "target": null,
      "label": "stabilize_attitude"
    },
    {
      "index": 13,
      "command": "switch_to_thruster_control",
      "target": null,
      "label": "switch_to_thruster_control"
    },
    {
      "index": 14,
      "command": "desaturate_wheels",
      "target": null,
      "label": "desaturate_wheels"
    },
    {
      "index": 15,
      "command": "recalibrate_star_tracker",
      "target": null,
      "label": "recalibrate_star_tracker"
    },
    {
      "index": 16,
      "command": "cross_validate_attitude",
      "target": null,
      "label": "cross_validate_attitude"
    },
    {
      "index": 17,
      "command": "switch_attitude_reference",
      "target": "star_tracker",
      "label": "switch_attitude_reference:star_tracker"
    },
    {
      "index": 18,
      "command": "switch_attitude_reference",
      "target": "gyro",
      "label": "switch_attitude_reference:gyro"
    },
    {
      "index": 19,
      "command": "switch_attitude_reference",
      "target": "sun_sensor",
      "label": "switch_attitude_reference:sun_sensor"
    },
    {
      "index": 20,
      "command": "recalibrate_imu",
      "target": null,
      "label": "recalibrate_imu"
    },
    {
      "index": 21,
      "command": "query_power_level",
      "target": "battery",
      "label": "query_power_level:battery"
    },
    {
      "index": 22,
      "command": "query_power_level",
      "target": "solar_a",
      "label": "query_power_level:solar_a"
    },
    {
      "index": 23,
      "command": "query_power_level",
      "target": "solar_b",
      "label": "query_power_level:solar_b"
    },
    {
      "index": 24,
      "command": "query_attitude",
      "target": null,
      "label": "query_attitude"
    },
    {
      "index": 25,
      "command": "query_thermal",
      "target": null,
      "label": "query_thermal"
    },
    {
      "index": 26,
      "command": "diagnostic_scan",
      "target": "power",
      "label": "diagnostic_scan:power"
    },
    {
      "index": 27,
      "command": "diagnostic_scan",
      "target": "attitude",
      "label": "diagnostic_scan:attitude"
    },
    {
      "index": 28,
      "command": "diagnostic_scan",
      "target": "comms",
      "label": "diagnostic_scan:comms"
    },
    {
      "index": 29,
      "command": "safe_mode",
      "target": null,
      "label": "safe_mode"
    },
    {
      "index": 30,
      "command": "resume_nominal",
      "target": null,
      "label": "resume_nominal"
    }
  ],
  "weights": [
    [
      -0.16563329496453472,
      -0.16348543831312118,
      0.008484211680474587,
      -0.16069257239773124,
      -0.15984874833848128,
      -0.16293318945773316,
      -0.009078342968789895,
      -0.0028786704395919937,
      -0.0005191888160920644,
      -0.13198288767163138,
      -0.00811753087541563,
      0.004059658759136396,
      -0.1774287119767596,
      0.010049896520090088,
      -0.1436963553835649,
      -0.007740262405466862,
      0.011065999283111784,
      0.009295155622511335,
      -0.1469215493293232,
      -0.030323583013907793,
      -0.15743405889392628,
      -0.009699985261007902,
      -0.01352931991459199,
      -0.17348986393135402,
      -0.006195834744041418,
      -0.005161139726695705,
      -0.009398348215504228,
      -0.0007213107755343097,
      -0.16587026370159796,
      0.0068485425703706405,
      0.00038248229528153356,
      -0.16187505187634757,
      -4.536955864166761e-06,
      0.021202941708555464,
      -0.18348823947348805,
      -0.004436742006722283,
      0.009953124009261688
    ],
    [
      -0.028205576474734106,
      -0.02415683724260865,
      0.005655631124041056,
      -0.018093077673351676,
      -0.019805303981504565,
      -0.04247996366994937,
      -0.024739996106980564,
      -0.011215649088201553,
      -0.01853341071803987,
      0.0031920747404457737,
      -0.0009426396623266662,
      0.013563872944298767,
      -0.021818447309645106,
      0.0005676599528340192,
      -0.0007012034508216362,
      0.009840285012786327,
      0.00995650673199594,
      0.009607178823485841,
      -0.002051512238414377,
      -0.02117385996690303,
      0.0026817604336299584,
      -0.0009527179226860773,
      -0.036293624663585614,
      -0.046376525340814684,
      -0.003348287490733042,
      0.009281524331875282,
      0.005160810339875177,
      0.0012817483494109302,
      -0.052113565091015404,
      -0.0079790738208659,
      0.00011978281984144812,
      -0.041100893831998525,
      -0.006446437436032677,
      0.01084254908590201,
      -0.04882755801153177,
      -0.006186311694192679,
      0.004637884314287006
    ],
    [
      -0.03403334347464809,
      -0.014589591359056419,
      -0.006865640062040413,
      -0.02856129775356324,
      -0.032719096638309866,
      -0.03125678560516852,
      0.009805407789931858,
      0.006284062344876073,
      -0.0037012647193455637,
      -0.006570700042452747,
      -0.005785795571311212,
      -0.0073724432518274,
      -0.005181936395898535,
      0.0028367131318092105,
      -0.03535029032903998,
      0.010490294173940602,
      -0.005030872404712396,
      -0.004834448842767592,
      0.005453793795456463,
      -0.01398957293471638,
      -0.01464218619369205,
      -0.02461603263554102,
      -0.008197656540761395,
      -0.02499798918562944,
      -0.005139741597248753,
      0.0020256768716387756,
      -0.0025659190681354364,
      -0.0009358379055230195,
      -0.01746999169923422,
      -0.0003255093347490981,
      0.0014914249085989512,
      -0.019322171792936035,
      -0.0063434456844262965,
      -0.006213033397741631,
      -0.019188470753867974,
      0.006356038989192963,
      -0.0050100286714150075
    ],
    [
      -0.03078586875720853,
      -0.019793394280140705,
      0.008808097921897648,
      -0.030650086168413956,
      -0.015579165030300825,
      -0.017048394846009056,
      0.0020706842956688693,
      -0.0015708555210528427,
      -0.007923206372701039,
      -0.017727175464735838,
      0.02742198279487846,
      -0.005947209743999442,
      -0.013584588001764786,
      0.013307980532172393,
      -0.018107525141326672,
      0.0019293261305987092,
      0.014037059495460897,
      -0.006491332064682815,
      0.00440706655043039,
      -0.023681610810678495,
      -0.013604999026030167,
      -0.01522162944746088,
      0.0070479975068376294,
      -0.022295821761976368,
      -0.0043956121485829,
      0.008347203569851502,
      0.012247930153159843,
      -0.009668504138416897,
      -0.047366356081663064,
      0.017082462965409342,
      -0.00879088848134903,
      -0.049225159134783536,
      -0.002624292592554747,
      0.0027952114679667267,
      -0.0333021346738422,
      -0.002757096866010382,
      0.007818804599396248
    ],
    [
      0.004140774257968174,
      -0.0023406350680743927,
      0.0039001402797395404,
      -0.007422112455495463,
      -0.016303974076186684,
      -0.014744483793316228,
      -0.005432702427608336,
      0.010632341062017742,
      0.006447492389021673,
      0.012487445860762,
      -0.01269273747813894,
      0.006079737705590518,
      -0.0020501106651116276,
      0.0016621074184022771,
      -0.011185552581395638,
      0.009987152527635107,
      -0.0028517902812012167,
      0.0009219071817064117,
      0.004740109897325177,
      0.014757133939954502,
      0.007035942239968204,
      0.006168360603366323,
      -0.003992488417094675,
      0.002830957422244227,
      -0.0029633180670549254,
      0.0037029191066739603,
      0.004228542314356761,
      0.009516573400970993,
      -0.005432403075532815,
      0.002022463539517173,
      0.009364001699359428,
      -0.002319315947386348,
      0.002499210933188384,
      0.0020353983171727797,
      -0.008204244102741834,
      0.0021773380148781968,
      -0.008395959423385795
    ],
    [
      -0.0026311060128097535,
      0.0064229763102115565,
      0.007867242024367987,
      -0.005028403179813187,
      -0.011823818074021261,
      -0.0007670417398063737,
      0.005210301930522927,
      0.001592740185245304,
      0.00954969086148229,
      -0.012204501162165496,
      0.0047321943307384075,
      -0.005133415621486163,
      -0.0011816298258145478,
      -0.0015176391770002915,
      -0.006532342609455191,
      -0.001880390912594762,
      0.007987091906246725,
      0.002290065237899359,
      0.008409285468801453,
      -0.024191752726081144,
      -0.015365496753602685,
      -0.0038068985893928136,
      0.0035627395826217656,
      -0.011367703997419612,
      -0.006607856936190832,
      0.008114431998509803,
      0.003199800093516921,
      -0.00229812586859138,
      0.003552121624784065,
      -0.003460787623411841,
      0.0021812057666883147,
      -0.010312301204264358,
      -0.0013820943528840349,
      0.014161848340014334,
      -0.005176848641462139,
      0.007605378361670566,
      -0.0023116263420019404
    ],
    [
      0.001662143755078822,
      -0.0036702631101172356,
      -0.007276473472334038,
      -7.065916795356147e-05,
      0.0067419123494107894,
      0.006974406099404756,
      0.004224355230352134,
      0.009000003036910299,
      -0.004464080062231777,
      -0.0066174217890457255,
      -0.0009870109749806396,
      -0.004496743541101834,
      -0.005718392456934431,
      -0.0017203039850967987,
      0.0025146711647473733,
      -0.00012249266026209508,
      -0.003692567092735086,
      0.006782368248984519,
      0.009640730116483023,
      -0.0009504532336672838,
      -0.008506415660868981,
      -0.009370284486096545,
      0.0074565810870460495,
      -0.009170232016108228,
      0.004172618580023995,
      0.001411639206739472,
      -0.0038193929718008104,
      0.005830270434027758,
      -0.00961771970376588,
      -0.0072823768250362495,
      -0.0009033517256500593,
      -0.009505469833431673,
      0.006593368689181282,
      -0.0052518198223033144,
      -0.007182509482376678,
      -0.009061148616073638,
      0.0025836061113036907
    ],
    [
      -0.010421807817006168,
      -0.006752138423351794,
      0.0031008608102673033,
      -0.002398385892778363,
      0.0006231289266775738,
      -0.005648253247192797,
      -0.0070825058449334125,
      -0.0010340141630930592,
      -0.006963138301123365,
      -0.01913608978637004,
      -0.0006139066168074376,
      0.0011630265487455396,
      -0.010348096224783493,
      -0.0067459576593708786,
      -0.005278265737018375,
      0.0017531750585119523,
      -0.0017845974548780482,
      0.002288953363419886,
      0.005124137127279096,
      -0.004322732156674547,
      -0.0035127783941909293,
      0.008124739710081043,
      -0.008255806802141337,
      -0.000699346595843366,
      0.0044475435298639825,
      -0.0074018015786256,
      -0.0009292769138698701,
      0.002510963512558615,
      -0.0011521159775337592,
      -0.0024639446213821966,
      0.0013762808818629027,
      -0.0017650066240027813,
      0.00593534481815248,
      0.006692103751490396,
      -0.007884212111723656,
      0.003026451316823638,
      -0.005902112707649972
    ],
    [
      0.002011364081395215,
      -0.007443074324538626,
      0.0027898992970218947,
      0.004206630209072599,
      -0.005880677315786145,
      0.005490045204920937,
      0.007112080168594572,
      0.008026551592293171,
      -0.0007814868410662482,
      0.02607075397371734,
      0.023686758047467036,
      0.018246401432207827,
      -0.00994835556271196,
      0.020224440937333096,
      -0.010771897281667563,
      -0.00020843493432961527,
      0.024260338626898782,
      0.0053646699004257885,
      -0.0002510501563909532,
      -0.026533542604052548,
      0.03443520792400409,
      -0.03939861644040983,
      0.005997197335228964,
      -0.008969422798417916,
      -0.0032999134530747763,
      0.005758118318916443,
      0.02008886749290167,
      -0.007026488930013195,
      -0.029375714106151675,
      0.03175019125598168,
      0.00679952884880994,
      -0.02591878157044432,
      0.008914947938909937,
      0.02310592602315304,
      -0.016698561526394526,
      -0.008279529846036558,
      -0.00557171666034727
    ],
    [
      0.013972771808710625,
      0.00423757019455603,
      0.00457686402820515,
      0.016216926560842226,
      0.013895158209922844,
      0.020220303438942867,
      0.0011994217718412567,
      -0.003766048748597704,
      -0.002375660396399415,
      0.020444242963063474,
      0.023108802853937682,
      0.0007087023176738817,
      0.006882720819993574,
      0.024467109401233353,
      0.015582820990130222,
      0.001459781601674497,
      0.009117646603944981,
      0.0007180735639155823,
      6.348207666513096e-05,
      0.0021045549775705052,
      0.00565341244960701,
      0.007729298860314556,
      0.00032035543283128777,
      0.011451182408124403,
      0.006021371333211902,
      0.0012573337736622898,
      0.014919111024820663,
      0.0038197352240638763,
      -0.010340793804810441,
      0.015872610903124793,
      -0.0017245182513023968,
      0.00747850319142068,
      0.008468374670171643,
      0.008823779521715942,
      -0.0005367700020914423,
      -0.007460648217844843,
      -0.001326448187098695
    ],
    [
      -0.03797877573583399,
      -0.03649278748465197,
      -0.00024179773355445283,
      -0.034466831757993074,
      -0.03698209035171244,
      -0.04197817187659453,
      -0.001941178624538212,
      -0.01639865745401404,
      -0.003402109594826074,
      -0.03444273778396564,
      -0.018755639327874316,
      -0.008474393500985146,
      -0.02765289184180507,
      -0.004856840376738432,
      -0.020494937809031333,
      -0.001308506277526167,
      -0.022254854335077973,
      0.004617875007128222,
      -0.007544333062780103,
      -0.03184639466451149,
      -0.0316801643574701,
      -0.00364007541127091,
      -0.01940018959393641,
      -0.04555759660701422,
      -0.002485276068299025,
      -0.0017319597564369824,
      -0.012467125120805243,
      -0.0020960663302617916,
      -0.04186307654419076,
      -0.010427779183104618,
      0.007478706933693342,
      -0.03535602103028245,
      0.007025163403591704,
      0.0009357374655927816,
      -0.03585934722701528,
      -0.005346832139071301,
      0.0048154314797943815
    ],
    [
      -0.02371473073826387,
      -0.014278344369775082,
      -0.0028445627945989428,
      -0.03414132716297648,
      -0.021985756431807113,
      -0.035594969615250445,
      0.01031125097189066,
      0.00809500825651998,
      -0.006977181045908219,
      -0.027890008073186465,
      -0.009937377504666025,
      -0.009617844265620882,
      -0.02257104757112546,
      0.0073327043878543075,
      -0.000878054387307424,
      0.005798716501122561,
      -0.020281004967203992,
      -0.0019444239693890957,
      0.00370429810864595,
      -0.02429166631453126,
      -0.02178459420880623,
      -0.010473957420258024,
      0.008227459463622277,
      -0.02055733039637646,
      -0.007691795124901586,
      0.0001136184684427926,
      -0.009483751186145232,
      0.0019014782584878666,
      -0.013410172595431827,
      -0.02086669406246231,
      -0.006743188043196673,
      -0.025000358775404175,
      -0.009251282548606814,
      0.0017227637505300285,
      -0.030317742920525838,
      0.0013748434903140243,
      -0.0070689035669608226
    ],
    [
      -0.0019764855255658834,
      -0.0004976269432210812,
      0.006426593632530705,
      0.0049262904225449355,
      0.0036581091268286783,
      -0.00412410710208578,
      -0.002618964244484611,
      0.015172032865303354,
      0.005383548947089516,
      0.008380875888186139,
      -0.008779116173005492,
      0.010338667713660588,
      0.0032531766074899637,
      0.018863778461909897,
      0.014764146674672459,
      -0.009735079909264102,
      0.01896709374235713,
      0.006885257393162097,
      -0.006374616264111423,
      0.019341173094827982,
      -0.006113726561893059,
      0.01333924171050181,
      -0.006097481905688009,
      -0.0023656780799422078,
      0.00025121596341567444,
      -0.009691646795914069,
      0.0025480384177711812,
      0.006034123277948252,
      0.01374188104982529,
      0.0018989740592858136,
      0.002587726554212952,
      0.007738648405931441,
      0.0019921028898578635,
      0.020347927020069025,
      -0.006275759895123288,
      0.0060964280012838195,
      -0.004834715086293853
    ],
    [
      0.006547765722342192,
      0.00046346688479474013,
      0.005999469580288932,
      0.015720706987802983,
      0.0075406058016794005,
      0.006191257181273247,
      -0.0013047508210144217,
      -0.005754392582287713,
      -0.004304972120964505,
      0.016651253363185438,
      0.006166429023002109,
      0.011819893284378736,
      -0.01803705964164891,
      0.010132485508710607,
      0.009494586649878891,
      -0.009788107888691402,
      0.010410855991764782,
      0.002774241552159877,
      0.0024804055764630142,
      -0.005357856113765312,
      0.01901129249972925,
      0.006502204816691493,
      -0.0182200148494076,
      0.001517009768830192,
      0.0013915108415426848,
      0.0006615935380509443,
      0.004825693647674456,
      0.013178073774736829,
      -0.0090470552292664,
      0.01105882607037682,
      0.008415127541252608,
      -0.002290626248186581,
      -0.009543589783494377,
      0.015606040657307372,
      -0.010200429534868037,
      -0.004867330127411116,
      -0.001968886926060724
    ],
    [
      -0.012493467296223732,
      -0.0015968266698271382,
      -0.0017906256723424553,
      -0.014090269134075904,
      -0.01104150183306272,
      0.004585056579357422,
      0.003183831583313828,
      0.0018610249198997546,
      0.011047362078726863,
      0.001213858933984801,
      0.016395541278906425,
      0.006509073817709472,
      0.007878293061877248,
      0.0029949422425137517,
      -0.0003998901138580714,
      0.00715383315995417,
      0.004342163608482477,
      0.008603076627642403,
      -0.006801368536665666,
      0.0014040994160967215,
      -0.0004976326589572685,
      -0.009712102247410957,
      0.002223432003939485,
      -0.012331699445664814,
      0.008905468209763337,
      -0.0015859226458615257,
      0.004686210393017778,
      0.009276617129381902,
      -0.017662121744845112,
      -0.00013394613881162303,
      0.010422207815786795,
      -0.013760743471020156,
      -0.004329430511058454,
      0.017771926830420726,
      -0.021021687212859616,
      -0.009719750617073778,
      -0.005099543692796236
    ],
    [
      -0.031558965575489116,
      -0.01967005297390806,
      0.004353739706668691,
      -0.04291522364349786,
      -0.03276349253054792,
      -0.018070024105786904,
      0.011672505249648066,
      0.021976090038350375,
      0.021089847886519845,
      -0.020663276615689598,
      0.008111017230705167,
      0.01009661875633229,
      -0.00842079061657951,
      0.044342438348463444,
      0.001291244667016675,
      0.000467188820015332,
      0.04362449593994186,
      0.004454755322556632,
      -0.0006329929613523872,
      -0.002288682740755322,
      -0.02943349596706773,
      0.015425436829005039,
      -0.007698134772419969,
      -0.01992948637820076,
      -0.0008862262788467273,
      -0.005926861187647414,
      -0.008958885914579471,
      0.0005619941882378035,
      -0.02992792772476504,
      -0.001142717728051806,
      0.0033578251923580844,
      -0.023303377167963935,
      -0.00475741183167798,
      0.029587917639038973,
      -0.05196699404027033,
      0.005559335014800257,
      0.0006153252445357856
    ],
    [
      -0.13408115943292373,
      -0.12838845862879966,
      0.010517814711641479,
      -0.006048481775498476,
      -0.008539331267177461,
      -0.13617985891744655,
      -0.12774843120411333,
      -0.13093507904556542,
      -0.13625092965686567,
      0.017842740673170255,
      0.028455679042593378,
      0.004678963558656322,
      -0.14443461327483498,
      0.002662012618577578,
      -0.004591596092524991,
      -0.006203691072479532,
      0.019734122941908017,
      0.009594417162677381,
      0.008314440279599692,
      0.03233043036577105,
      0.015545059948122346,
      -0.018442851007220054,
      -0.16371137648309295,
      -0.14552999175261097,
      0.002466983204788744,
      -0.007950607952093893,
      0.025587865716653738,
      -0.008550143278272722,
      -0.17705991734912335,
      0.02828050358973245,
      0.0010125722340873014,
      -0.16616664502840522,
      -0.0025363280647978884,
      -0.00042888993708800095,
      -0.14982119860252105,
      -0.0031259895124426864,
      0.004896536340320482
    ],
    [
      -0.003632666394512221,
      -0.015556531159995354,
      -0.009047310829163092,
      0.00549193664354492,
      0.00178292586606362,
      -0.005031424413154385,
      -0.01641933288132332,
      -0.009783059802805256,
      -0.013108821561668465,
      0.00577261692143093,
      0.00933130657214724,
      0.0064931250339566255,
      0.00422714796876939,
      0.009116369584089911,
      -0.012617058553880556,
      -0.0028515951083621285,
      0.018863165571837825,
      -0.0014469488480975626,
      -0.0026147898166493187,
      -0.019931892732981044,
      0.005786467379028404,
      -0.00813831770227686,
      -0.01731774907162469,
      -0.009119418085263595,
      -0.00030286285053183343,
      0.003706538448261071,
      0.004195899762169799,
      0.017673824907631898,
      -0.03926440597886733,
      0.00248369362010006,
      0.015405726999496598,
      -0.03915181334356967,
      -0.003923895285314136,
      0.014946608227085484,
      -0.016970792436220558,
      -0.004341696369393056,
      -0.007141637471504109
    ],
    [
      -0.018936232567045803,
      -0.017882029965707872,
      -0.002672110958952148,
      -0.024464597670519065,
      -0.012626744012537983,
      -0.014717576487168423,
      0.009283141719253032,
      0.009278740076166405,
      0.008747529563073968,
      -0.0061230101883380916,
      -0.003951318696969025,
      0.00014465825134962642,
      -0.02301937486276271,
      -0.00022898289357287365,
      -0.003628573183661027,
      0.009673731381011796,
      -0.013267019833283778,
      -0.0027661158399993526,
      -0.002688715305310896,
      -0.012746071699398176,
      -0.01837602112912952,
      -0.0020524548882485984,
      -0.006100791582639152,
      -0.01481617165959485,
      0.005941656439042974,
      0.000811229073224444,
      -0.003284780130800526,
      0.0012555840875638005,
      -0.012548114250753455,
      -0.00483336023145192,
      0.007617964871929969,
      -0.010450859300630558,
      -0.009555398192816951,
      0.01638903342436221,
      -0.031285439812984164,
      0.001349250271302338,
      0.009328321072807942
    ],
    [
      -0.006762885804813207,
      -0.003695227319955809,
      -0.008808401589465527,
      0.0009425355251193675,
      0.005767471205744282,
      -0.01820431842792413,
      -0.010965290711124273,
      -0.0017875581363675473,
      0.0014526806208257793,
      0.007880216388478323,
      0.003132214626318684,
      0.0036683709532728363,
      -0.013429502684522386,
      0.01916628604927486,
      -0.004155676494225411,
      0.010595215179554413,
      0.02149327887181544,
      0.00043108378919485754,
      0.0052941860942646995,
      0.006751247652891064,
      0.012942489947648642,
      0.009365429629827506,
      -0.022525439268616256,
      -0.009913729090380774,
      0.0007467968471022973,
      0.004418702434371188,
      0.0041628127721187996,
      0.0171631329883067,
      -0.020438453728451364,
      0.0065246434488441234,
      0.012198324658802669,
      -0.01158048360295173,
      0.006118145194348173,
      0.0228627728005931,
      -0.01820024784115545,
      0.00915573515613999,
      0.0028054671025794214
    ],
    [
      -0.006298463576136546,
      0.0010937665370493372,
      0.0063838476994230045,
      -0.008343368171525135,
      -0.008366454094719939,
      -0.013851797829616434,
      0.0048246447983761424,
      0.009820207601068087,
      -0.0024895540350573777,
      -0.008815078749098499,
      -0.005912705005805639,
      -0.0027681312500281085,
      -0.0071407705797282995,
      0.009395205510569658,
      -0.015591446227520404,
      -0.0038311079545661616,
      -0.007703745766952732,
      0.0029596063726418168,
      0.005518700617511576,
      -0.006411342633933488,
      -0.008753109760115278,
      -0.007600396111439583,
      0.0016813286365685073,
      0.0014103120393098587,
      -0.00927250708452604,
      -0.007826481879111481,
      -0.006309198236566756,
      -0.005652713240928842,
      -0.012067410843970849,
      0.004344874690758059,
      0.0018957210344985216,
      -0.012296400140835304,
      -0.006300259248238656,
      -0.004378761589156588,
      -0.013325319290960522,
      0.005150077482663343,
      -0.0037653987665838117
    ],
    [
      0.0040896724909628614,
      0.008793190684974547,
      -0.00027254202670919336,
      -0.00639047181499292,
      0.006148619879042546,
      0.011186727507089171,
      0.0010274514465866125,
      0.004097106788515835,
      0.012290505699386795,
      0.00020631604056202575,
      -0.017336503404303604,
      -0.0009583774948034615,
      0.009454391102264426,
      0.021349604347888053,
      0.013936511946065417,
      0.0048179227651007316,
      0.00252561755348967,
      -0.004508997978616016,
      0.009804913261225451,
      -0.009045205143544954,
      -0.013177791781608869,
      0.0012725956698562812,
      -0.0005470799050884215,
      0.000556192101251976,
      0.005935460514806689,
      0.004265749815320727,
      -0.0109905353297845,
      0.008467059147524247,
      -0.005946067331306945,
      -0.016675924927511774,
      0.010509717996932377,
      0.008300641276080016,
      0.00032250644730276445,
      0.018976312018623077,
      -0.0032496226323696226,
      -0.004669816119084283,
      0.0006915287752361984
    ],
    [
      -0.007718015492755508,
      0.0041804464509808525,
      -0.009703784110692209,
      0.0006390097238375934,
      0.0011343049851011526,
      0.005479393666351135,
      -0.00419140290133584,
      -0.0012289609111209962,
      0.00770308224089611,
      -0.003712323327438474,
      -0.006868689883285803,
      0.012692420767779487,
      0.00749564103270263,
      0.024277099855101895,
      0.01270031464083573,
      -0.0006849434740837847,
      0.016247290580799788,
      -0.0016605899940326171,
      0.008335162204836223,
      -0.011788818688060676,
      0.0029187976796926154,
      -0.0029551917244174802,
      0.0008674270530267814,
      -0.00021762732908346336,
      -0.006848969616503382,
      0.006640182430138334,
      -0.013351581696601313,
      0.01301236224466176,
      -0.016428264125080506,
      -0.013465718082344653,
      0.016141954970547483,
      -0.0036458514305891137,
      -0.0028058101126037975,
      0.029015163520774004,
      -0.033889319186556494,
      -0.0021152736729594095,
      -0.0007648234446888617
    ],
    [
      -0.0017680065065978356,
      -0.004637996646227473,
      0.0028407996003284555,
      -0.0211608045139091,
      -0.013865233268942047,
      -0.0069854780171139386,
      -0.0024392938248907962,
      0.0014828367170280628,
      -0.0006377247845798313,
      0.004369498696284152,
      -0.0005806987971679733,
      -0.004635445702948783,
      -0.030896172833716713,
      -0.026121159161690007,
      0.01827034579711307,
      -0.001452777613757737,
      -0.022021115852352353,
      -0.00403588191358907,
      -0.003252207226317818,
      -0.022986898420876027,
      0.021697546085265265,
      -0.034341006914683385,
      -0.0060011065935269324,
      -0.0064772989593556395,
      -0.0034120395318098804,
      0.0089007501712154,
      0.001256166319522108,
      -0.02806535615586397,
      0.018068193557868713,
      0.006537700501447632,
      -0.04069572277009568,
      0.01425147363468004,
      -0.00811207158395063,
      -0.007552265223006217,
      0.004165777292735056,
      -0.006402587712829473,
      -0.0019544196074491125
    ],
    [
      -0.005382848579890326,
      -0.010525089645275154,
      -0.0074550540662683545,
      -0.018041290338597686,
      -0.01943123638878624,
      -0.019662932589733978,
      -0.0006079869217332423,
      -0.008245041333967118,
      0.008713618774122652,
      0.0012737246071659438,
      -0.0033251307729703448,
      0.010568628745609243,
      -0.003299804066099735,
      0.001342075943474564,
      -0.017665450359121905,
      0.0005568849122744371,
      0.005434601506932105,
      -0.009691490422645457,
      -0.0019858380238570224,
      -0.0005823610967088935,
      0.006526536338755266,
      0.016097697138519825,
      -0.01610844634844764,
      -0.009949162790375658,
      -0.00962916981269205,
      -0.0033796910660326574,
      -0.010196426360300465,
      0.014332372391109578,
      -0.024272452064646254,
      -0.009488912238454394,
      0.01150517014425315,
      -0.010626923400016482,
      0.006503772303858875,
      0.01646169598838928,
      -0.03318735488553565,
      0.005330254068797544,
      0.008059935316217738
    ],
    [
      -0.0066350479593901505,
      -0.007045880764288347,
      0.0006144504634278231,
      -0.02095767389674149,
      -0.009524337516019334,
      0.0019265770925920456,
      0.005941804910924964,
      0.008436316626758242,
      0.010839050374283293,
      -0.012768087535878509,
      0.001220804359415472,
      0.00869369022708106,
      -0.007864899497996188,
      0.0033612590151503342,
      -0.0017291495018982549,
      0.007676698106544489,
      0.01316808169224638,
      -0.0034163077038888235,
      0.008581200968103225,
      -0.00275480819833363,
      -0.011527399869635514,
      -0.0043315142393358305,
      0.009471566487816241,
      -0.014888029710844722,
      0.008081146563488883,
      0.0008685120263918471,
      -0.007402843193024294,
      0.01290346014357591,
      -0.015391851765779783,
      -0.00043078333486107866,
      0.021539116378476678,
      -0.00432899035805741,
      0.0020301202156602274,
      0.013654166087093376,
      -0.022308190749192505,
      -0.004228417920310501,
      0.007940163517539777
    ],
    [
      -0.004630727931559395,
      0.001058950434708968,
      0.006060183252426685,
      -0.00992090396846508,
      -0.002675249323846239,
      -0.008250593955419012,
      -0.006569602844104959,
      -0.003608664423313776,
      0.012530101559549051,
      0.018612573663000443,
      0.009269154040173646,
      0.010217251270463969,
      -0.004060044556721243,
      0.015858146038245702,
      0.008737395597406107,
      0.0018379610240942795,
      0.02847498821206918,
      -0.009673016792751872,
      -0.0060093080383530565,
      -0.011933603385882955,
      -0.011591094486392433,
      0.014024505889122267,
      -0.00990373287985371,
      -0.005974190908683147,
      0.00039541291169428207,
      -0.004726836048941023,
      0.007462379273945417,
      -0.003358045063395345,
      -0.0027155394437619954,
      -0.003141041789787382,
      0.0034198918621999603,
      -0.012654707596094156,
      0.009186604842178864,
      0.02440051115628021,
      -0.02244840694667276,
      -0.001771500275031073,
      0.002476054119029023
    ],
    [
      -0.011588525038660775,
      -0.006865086578111614,
      0.00564408928046762,
      -0.015648777807993793,
      -0.0054722660174911205,
      -0.008649541386063987,
      0.009933774388225446,
      -0.001826236089581441,
      -0.0013275144464533757,
      0.002842958885901947,
      0.006984421511011893,
      0.008953829904552839,
      -0.018503787346574423,
      0.012891540001726737,
      -0.013290279597211775,
      0.008108515501369859,
      0.0016677855226847537,
      0.004511657598049799,
      0.008002755408468917,
      0.008453449712038395,
      0.0006657370059516719,
      0.0004888299608726762,
      -0.01344607433740196,
      -0.013505951727290128,
      -0.00860400404865407,
      -0.0075111074977543945,
      -0.0021813679287541656,
      5.269018904131492e-05,
      -0.016319675454708134,
      -0.010081229527757418,
      0.003898092971052692,
      -0.013729770798089742,
      -0.005217047401520527,
      0.025814980573444134,
      -0.0471531738478375,
      -0.00528257043961397,
      -0.008631206750977522
    ],
    [
      -0.010889767001151615,
      -0.009786194283742642,
      0.003314065839167128,
      -0.005993471706729823,
      -0.014895249567579141,
      -0.013010504370014341,
      -0.009425984940141482,
      0.0010708844111360625,
      -0.0025255031389337565,
      -0.002044725241124563,
      -0.012865178548212182,
      0.005267102926259872,
      -0.022618546855970208,
      0.0007517994308303532,
      0.0004382315652327537,
      -0.009988468394263648,
      -0.009957828006778852,
      -0.00401465013266737,
      -0.003504714046118731,
      -0.013583755021041748,
      -0.002631882331660636,
      0.006308925975927386,
      -0.010636172005643802,
      -0.021985702709215516,
      0.001710178588449119,
      -0.009082207485106025,
      -0.014213806214561572,
      0.007970243441132478,
      -0.018122249305431833,
      -0.004868080933270554,
      0.008678724881509349,
      -0.004733636520660793,
      -0.0005471851112350927,
      -0.005869836926058925,
      -0.023208690157381882,
      0.008452980472523271,
      0.007935948231661523
    ],
    [
      0.0020146836439187375,
      0.012928643151651011,
      -0.0035250940973391006,
      0.007554386372333213,
      0.0015423022785451754,
      0.015651913549541933,
      0.009908081525538829,
      -0.005959793100789659,
      0.002647883927258416,
      0.0011488772840711529,
      0.01084692420345642,
      -0.006556207433807572,
      -0.0051966212896810225,
      0.007149219453665733,
      -0.0011065809807349648,
      0.008006126176400797,
      0.01063526251359205,
      0.004262891840783711,
      -0.007302403847137937,
      -0.00924440964564248,
      0.012753173678950926,
      0.0030106540241220878,
      -0.008420208816320676,
      0.002569335343231857,
      -0.0038567367016289177,
      0.004210718377105578,
      -0.0028271623832754086,
      -0.006379680675246659,
      -0.00043003423373520885,
      0.006535365348756014,
      0.005809800218537246,
      0.002311374904450563,
      0.003240175474346912,
      -0.0003671316610993087,
      0.017958542742364532,
      -0.005420099202225453,
      -0.0039813187874134836
    ],
    [
      -0.0171943005679809,
      -0.022388609468011154,
      -0.004463303516426078,
      -0.022930675201406816,
      -0.033929607802185006,
      -0.0160687194680399,
      -0.0011931298796588764,
      0.0005659598222094823,
      0.0006162491302781573,
      -0.032764102442738724,
      0.0019939934591295845,
      -0.004309206226877176,
      -0.029682042723223834,
      0.00606442251333039,
      -0.0339859728299418,
      -0.004296925665684617,
      0.005113627044785202,
      -0.005082028630475812,
      -0.004417959491284595,
      0.000962094519857723,
      -0.032002080862130744,
      0.007940628551061863,
      0.009754737302346937,
      -0.03505705183712039,
      -0.0007673539345845696,
      0.0050118296719932134,
      -0.002305792867741181,
      0.008585274650388717,
      -0.025731272393393748,
      -0.006402098675962246,
      0.0011201065446090046,
      -0.022829953895516886,
      -0.0028075448690649306,
      0.003165261072440981,
      -0.020069370714990147,
      0.00033470173052652617,
      0.00011258778379386568
    ]
  ],
  "bias": [
    -0.1646808860347311,
    -0.03811940930785809,
    -0.026652685148980483,
    -0.02458188207647373,
    -0.0054690941687965755,
    -0.005419192265555788,
    0.0,
    -0.009351423152026618,
    -0.0024273489425889715,
    0.013439503720790828,
    -0.04429311685412345,
    -0.029924895664851778,
    0.004332788594325793,
    -0.0016782148450347218,
    -0.003502605934199372,
    -0.022414445804299514,
    -0.14403385124677612,
    -0.010403744186800337,
    -0.016092265435857765,
    -0.00978696826308397,
    -0.0067755865925614245,
    0.003124981009671164,
    -0.0007310828234549857,
    -0.011106172741153511,
    -0.012121243296743956,
    -0.007600122444023827,
    0.0005520419990528245,
    -0.015374699479756308,
    -0.019115657210051186,
    0.008104592077493623,
    -0.025729279074033946
  ],
  "config": {
    "episodes": 3,
    "max_steps": 50,
    "seed": 11,
    "learning_rate": 0.03,
    "gamma": 0.95,
    "gradient_clip": 5.0,
    "epsilon_start": 1.0,
    "epsilon_end": 0.05,
    "epsilon_decay_episodes": 180,
    "eval_every": 0,
    "eval_episodes": 20,
    "n_features": 37,
    "n_actions": 31,
    "feature_names": [
      "bias",
      "battery_pct",
      "battery_drain_rate",
      "solar_a_output",
      "solar_b_output",
      "bus_voltage",
      "star_tracker_error",
      "gyro_error",
      "sun_sensor_error",
      "fuel_units",
      "signal_strength",
      "battery_temp",
      "episode_progress",
      "science_a_online",
      "science_b_online",
      "heaters_online",
      "transponder_online",
      "last_action_error",
      "last_action_refused",
      "last_action_diag",
      "attitude_mode_nominal",
      "attitude_mode_thruster",
      "attitude_mode_tumbling",
      "rw_status_nominal",
      "rw_status_degraded",
      "rw_status_failed",
      "transponder_status_nominal",
      "transponder_status_degraded",
      "transponder_status_offline",
      "link_bandwidth_high",
      "link_bandwidth_low",
      "link_bandwidth_none",
      "mission_status_nominal",
      "mission_status_degraded",
      "mission_status_critical",
      "mission_status_recovered",
      "mission_status_lost"
    ],
    "action_space": [
      {
        "index": 0,
        "command": "shed_load",
        "target": "science_a",
        "label": "shed_load:science_a"
      },
      {
        "index": 1,
        "command": "shed_load",
        "target": "science_b",
        "label": "shed_load:science_b"
      },
      {
        "index": 2,
        "command": "shed_load",
        "target": "heaters",
        "label": "shed_load:heaters"
      },
      {
        "index": 3,
        "command": "shed_load",
        "target": "transponder",
        "label": "shed_load:transponder"
      },
      {
        "index": 4,
        "command": "restore_load",
        "target": "science_a",
        "label": "restore_load:science_a"
      },
      {
        "index": 5,
        "command": "restore_load",
        "target": "science_b",
        "label": "restore_load:science_b"
      },
      {
        "index": 6,
        "command": "restore_load",
        "target": "heaters",
        "label": "restore_load:heaters"
      },
      {
        "index": 7,
        "command": "restore_load",
        "target": "transponder",
        "label": "restore_load:transponder"
      },
      {
        "index": 8,
        "command": "switch_to_backup_battery",
        "target": null,
        "label": "switch_to_backup_battery"
      },
      {
        "index": 9,
        "command": "reset_power_controller",
        "target": null,
        "label": "reset_power_controller"
      },
      {
        "index": 10,
        "command": "reconfigure_power",
        "target": "solar_a",
        "label": "reconfigure_power:solar_a"
      },
      {
        "index": 11,
        "command": "reconfigure_power",
        "target": "solar_b",
        "label": "reconfigure_power:solar_b"
      },
      {
        "index": 12,
        "command": "stabilize_attitude",
        "target": null,
        "label": "stabilize_attitude"
      },
      {
        "index": 13,
        "command": "switch_to_thruster_control",
        "target": null,
        "label": "switch_to_thruster_control"
      },
      {
        "index": 14,
        "command": "desaturate_wheels",
        "target": null,
        "label": "desaturate_wheels"
      },
      {
        "index": 15,
        "command": "recalibrate_star_tracker",
        "target": null,
        "label": "recalibrate_star_tracker"
      },
      {
        "index": 16,
        "command": "cross_validate_attitude",
        "target": null,
        "label": "cross_validate_attitude"
      },
      {
        "index": 17,
        "command": "switch_attitude_reference",
        "target": "star_tracker",
        "label": "switch_attitude_reference:star_tracker"
      },
      {
        "index": 18,
        "command": "switch_attitude_reference",
        "target": "gyro",
        "label": "switch_attitude_reference:gyro"
      },
      {
        "index": 19,
        "command": "switch_attitude_reference",
        "target": "sun_sensor",
        "label": "switch_attitude_reference:sun_sensor"
      },
      {
        "index": 20,
        "command": "recalibrate_imu",
        "target": null,
        "label": "recalibrate_imu"
      },
      {
        "index": 21,
        "command": "query_power_level",
        "target": "battery",
        "label": "query_power_level:battery"
      },
      {
        "index": 22,
        "command": "query_power_level",
        "target": "solar_a",
        "label": "query_power_level:solar_a"
      },
      {
        "index": 23,
        "command": "query_power_level",
        "target": "solar_b",
        "label": "query_power_level:solar_b"
      },
      {
        "index": 24,
        "command": "query_attitude",
        "target": null,
        "label": "query_attitude"
      },
      {
        "index": 25,
        "command": "query_thermal",
        "target": null,
        "label": "query_thermal"
      },
      {
        "index": 26,
        "command": "diagnostic_scan",
        "target": "power",
        "label": "diagnostic_scan:power"
      },
      {
        "index": 27,
        "command": "diagnostic_scan",
        "target": "attitude",
        "label": "diagnostic_scan:attitude"
      },
      {
        "index": 28,
        "command": "diagnostic_scan",
        "target": "comms",
        "label": "diagnostic_scan:comms"
      },
      {
        "index": 29,
        "command": "safe_mode",
        "target": null,
        "label": "safe_mode"
      },
      {
        "index": 30,
        "command": "resume_nominal",
        "target": null,
        "label": "resume_nominal"
      }
    ]
  }
}