{
  "model_type": "linear_q",
  "n_features": 37,
  "n_actions": 31,
  "learning_rate": 0.03,
  "gamma": 0.95,
  "gradient_clip": 5.0,
  "feature_names": [
    "bias",
    "battery_pct",
    "battery_drain_rate",
    "solar_a_output",
    "solar_b_output",
    "bus_voltage",
    "star_tracker_error",
    "gyro_error",
    "sun_sensor_error",
    "fuel_units",
    "signal_strength",
    "battery_temp",
    "episode_progress",
    "science_a_online",
    "science_b_online",
    "heaters_online",
    "transponder_online",
    "last_action_error",
    "last_action_refused",
    "last_action_diag",
    "attitude_mode_nominal",
    "attitude_mode_thruster",
    "attitude_mode_tumbling",
    "rw_status_nominal",
    "rw_status_degraded",
    "rw_status_failed",
    "transponder_status_nominal",
    "transponder_status_degraded",
    "transponder_status_offline",
    "link_bandwidth_high",
    "link_bandwidth_low",
    "link_bandwidth_none",
    "mission_status_nominal",
    "mission_status_degraded",
    "mission_status_critical",
    "mission_status_recovered",
    "mission_status_lost"
  ],
  "action_specs": [
    {
      "index": 0,
      "command": "shed_load",
      "target": "science_a",
      "label": "shed_load:science_a"
    },
    {
      "index": 1,
      "command": "shed_load",
      "target": "science_b",
      "label": "shed_load:science_b"
    },
    {
      "index": 2,
      "command": "shed_load",
      "target": "heaters",
      "label": "shed_load:heaters"
    },
    {
      "index": 3,
      "command": "shed_load",
      "target": "transponder",
      "label": "shed_load:transponder"
    },
    {
      "index": 4,
      "command": "restore_load",
      "target": "science_a",
      "label": "restore_load:science_a"
    },
    {
      "index": 5,
      "command": "restore_load",
      "target": "science_b",
      "label": "restore_load:science_b"
    },
    {
      "index": 6,
      "command": "restore_load",
      "target": "heaters",
      "label": "restore_load:heaters"
    },
    {
      "index": 7,
      "command": "restore_load",
      "target": "transponder",
      "label": "restore_load:transponder"
    },
    {
      "index": 8,
      "command": "switch_to_backup_battery",
      "target": null,
      "label": "switch_to_backup_battery"
    },
    {
      "index": 9,
      "command": "reset_power_controller",
      "target": null,
      "label": "reset_power_controller"
    },
    {
      "index": 10,
      "command": "reconfigure_power",
      "target": "solar_a",
      "label": "reconfigure_power:solar_a"
    },
    {
      "index": 11,
      "command": "reconfigure_power",
      "target": "solar_b",
      "label": "reconfigure_power:solar_b"
    },
    {
      "index": 12,
      "command": "stabilize_attitude",
      "target": null,
      "label": "stabilize_attitude"
    },
    {
      "index": 13,
      "command": "switch_to_thruster_control",
      "target": null,
      "label": "switch_to_thruster_control"
    },
    {
      "index": 14,
      "command": "desaturate_wheels",
      "target": null,
      "label": "desaturate_wheels"
    },
    {
      "index": 15,
      "command": "recalibrate_star_tracker",
      "target": null,
      "label": "recalibrate_star_tracker"
    },
    {
      "index": 16,
      "command": "cross_validate_attitude",
      "target": null,
      "label": "cross_validate_attitude"
    },
    {
      "index": 17,
      "command": "switch_attitude_reference",
      "target": "star_tracker",
      "label": "switch_attitude_reference:star_tracker"
    },
    {
      "index": 18,
      "command": "switch_attitude_reference",
      "target": "gyro",
      "label": "switch_attitude_reference:gyro"
    },
    {
      "index": 19,
      "command": "switch_attitude_reference",
      "target": "sun_sensor",
      "label": "switch_attitude_reference:sun_sensor"
    },
    {
      "index": 20,
      "command": "recalibrate_imu",
      "target": null,
      "label": "recalibrate_imu"
    },
    {
      "index": 21,
      "command": "query_power_level",
      "target": "battery",
      "label": "query_power_level:battery"
    },
    {
      "index": 22,
      "command": "query_power_level",
      "target": "solar_a",
      "label": "query_power_level:solar_a"
    },
    {
      "index": 23,
      "command": "query_power_level",
      "target": "solar_b",
      "label": "query_power_level:solar_b"
    },
    {
      "index": 24,
      "command": "query_attitude",
      "target": null,
      "label": "query_attitude"
    },
    {
      "index": 25,
      "command": "query_thermal",
      "target": null,
      "label": "query_thermal"
    },
    {
      "index": 26,
      "command": "diagnostic_scan",
      "target": "power",
      "label": "diagnostic_scan:power"
    },
    {
      "index": 27,
      "command": "diagnostic_scan",
      "target": "attitude",
      "label": "diagnostic_scan:attitude"
    },
    {
      "index": 28,
      "command": "diagnostic_scan",
      "target": "comms",
      "label": "diagnostic_scan:comms"
    },
    {
      "index": 29,
      "command": "safe_mode",
      "target": null,
      "label": "safe_mode"
    },
    {
      "index": 30,
      "command": "resume_nominal",
      "target": null,
      "label": "resume_nominal"
    }
  ],
  "weights": [
    [
      0.015817273360995154,
      0.014318284350546707,
      -0.002600896669038415,
      0.023074262911196332,
      0.022239803978419702,
      0.01222661686463717,
      -0.012813200112760716,
      0.004053464915396073,
      -0.007889479657298045,
      0.018512517830849482,
      0.024395963923773682,
      0.023593036692155383,
      0.007712162022261665,
      0.033086267631635385,
      0.015577760049362085,
      0.02317783697727166,
      0.019487992952644494,
      0.0073609061428659365,
      0.000463624207666026,
      0.004436197344123753,
      0.021038445258764263,
      0.011442747396095403,
      -0.011549748638034199,
      0.00611154880707572,
      -0.003974646809685753,
      0.007388658700102956,
      0.02070762956567214,
      0.002848676734156837,
      0.00864367951353266,
      0.020973340831202857,
      0.007676284633071552,
      0.012689174383894088,
      -0.002100731919985121,
      0.04379050980263244,
      -0.01782193244275533,
      0.00871173443409042,
      0.007577333206760831
    ],
    [
      0.02273383920484312,
      0.023474632590696688,
      -0.005709593407813101,
      0.019676750310792843,
      0.005115141932954699,
      0.033047794596796014,
      -0.002724948946941748,
      0.0017536229796957159,
      -0.0010281477385538046,
      0.01832900685207126,
      0.02671354100457255,
      0.021813374930859077,
      -0.00035880442632900585,
      0.03924080180502496,
      0.034373954792872155,
      0.042729170400260745,
      0.03546682264613953,
      0.0034254708432503653,
      -0.006738007560578605,
      -0.015856191613027787,
      0.017936113839883715,
      0.03023521780676782,
      0.001382150069486469,
      -0.0005400656586160724,
      0.018935748698307622,
      0.01752006865299706,
      0.026183896071821353,
      -0.0033670700363083277,
      -0.0035930651956330648,
      0.03179209879324926,
      0.010729901022399195,
      -0.0030919148763430826,
      0.006011906425150039,
      0.028845976537035162,
      -0.006836679490835217,
      -0.004122175063618756,
      0.005375837745546893
    ],
    [
      0.01884164072689436,
      0.002270101456921204,
      0.002290650570636172,
      -0.011928925238263732,
      0.014993824187336973,
      0.007947310377695608,
      0.008125689356006634,
      0.010120298347926264,
      0.0006159906840203526,
      0.035941647115187825,
      -0.0007458219772184995,
      0.013034978963963675,
      0.014506565215340694,
      0.008768336421559237,
      -0.025742951463820808,
      0.025941120465517435,
      0.011774270438267832,
      -0.006876020179728706,
      -0.009151283505575916,
      0.03254293239254296,
      0.036907768327820174,
      -0.0200716691669989,
      0.007933192828552033,
      0.008942085022573987,
      -0.0007918073430819052,
      0.0004014596918512775,
      0.0028777743677545382,
      0.011477932746960412,
      0.003006593495717143,
      0.002402522708905239,
      0.018377353087400267,
      0.001961908574322529,
      -0.0013761689313813458,
      0.0450373829723811,
      -0.034492145305872315,
      -0.003978262776517012,
      0.009555946328972708
    ],
    [
      0.020155290019615565,
      0.02078151821004926,
      -0.00937105451370662,
      0.017479591457108323,
      0.0171741168957181,
      0.010071261483973587,
      -0.00138699637714091,
      -0.0005188966866317,
      -0.012501344990711587,
      0.022163966978667595,
      0.03813378875940507,
      0.032581592609474797,
      0.012909978479593364,
      0.027533405951532815,
      -0.002711378952287121,
      0.036051871944770685,
      0.03017316560366627,
      0.0035204061897475356,
      0.010968708581301395,
      0.019108483074780268,
      0.025496547269329466,
      0.0020675609497424457,
      -0.010451176244062967,
      -0.010372657760857485,
      0.009347029887708181,
      0.011673966543417184,
      0.03742495930647928,
      0.006308863767756657,
      -0.028537362509203634,
      0.04095799743821098,
      0.0008392084006314717,
      -0.024695409294370335,
      0.004703463633570191,
      0.049955142286451815,
      -0.03957130736839469,
      0.006076153407898266,
      -0.005226096462043162
    ],
    [
      0.016501622545298255,
      0.021458422137595835,
      0.003961328133496998,
      0.004510319195628953,
      0.018947116414964042,
      0.019315276555551705,
      0.006834737167413285,
      -0.0010674260125051493,
      0.007274663215964844,
      0.011906563337691646,
      -0.0012312986270293412,
      0.016690317520422913,
      0.02084820465822855,
      0.005379845785932713,
      0.0008583589546859588,
      -0.007581613505794272,
      0.006950354666396129,
      -0.006183923882970082,
      0.006135544752509147,
      0.023165461207275667,
      0.010067659892816268,
      0.001929644940558515,
      0.006144528363339072,
      0.02559248085687248,
      0.0061251568227011,
      -0.0030943439022480335,
      -0.0074062172440778635,
      0.00219665991763933,
      0.02227317211639445,
      -0.004576510121714952,
      0.003284887713565333,
      0.014734047544180945,
      -0.0016045763241749628,
      0.020944178055920613,
      0.008412247659752613,
      -0.006880042821232817,
      -0.009906764108337088
    ],
    [
      0.0253686672163611,
      0.018800793512134414,
      0.009738273100575913,
      0.019649731740358674,
      0.01365020383530565,
      0.02498291349806782,
      -0.008531287808184396,
      0.002074282734853747,
      0.0037608710519420833,
      0.028731135445200017,
      0.019339121498035114,
      0.013028951032566282,
      -0.007130991242612048,
      0.019973789276878238,
      -0.01624717112120386,
      0.03156974140858504,
      0.011468757661042018,
      0.006203837580164363,
      -0.009098463798292804,
      0.0006705254037108,
      0.03367029917414842,
      0.0010017115621242132,
      0.002113851198477198,
      0.0028770568043200023,
      0.023158818494523913,
      -0.00973711006625774,
      0.022647279427908572,
      -0.0027588560535443027,
      -0.009044954344861512,
      0.020999236167785904,
      0.004303994844037453,
      -0.00676770676483983,
      0.008780849265021795,
      0.031965741023996984,
      -0.01639209918513991,
      -0.00495050311505938,
      0.007233294329193342
    ],
    [
      0.019891860036446923,
      0.02616433060913597,
      -0.0029631673960681002,
      0.015193350488839153,
      0.007327191814435226,
      0.026613746617323186,
      -0.00806958024338898,
      0.005933030013070729,
      0.007835898718093636,
      0.01651352288451109,
      0.018325568670182767,
      0.003715367804864622,
      0.010258136724614305,
      0.034181173314420124,
      0.0028542304630177415,
      0.015775850776732325,
      0.007227315643181148,
      0.0005453235685336615,
      -0.0015403199119906359,
      -0.0058433105726139025,
      0.010539852167906422,
      0.005374184143942369,
      -0.008903328213804138,
      -0.014607002401899567,
      0.004646691771117003,
      0.006706344918678551,
      0.021349444042631033,
      0.0070889786947845295,
      0.00021487683846142282,
      0.011897993554209778,
      -0.0036820751194593824,
      0.004783912689876017,
      -0.002974208833903507,
      0.02328618236890134,
      0.0017322624182877274,
      -0.0027833082877203145,
      -0.006178359987136313
    ],
    [
      0.008863441484671131,
      0.0077380559354478014,
      0.001110518873257773,
      0.028252799510962153,
      0.015993064245995343,
      0.0038859400234684035,
      -0.014191384306554412,
      -0.010127684574109667,
      -0.005673809846150844,
      0.03372875351350325,
      0.008008235107577045,
      0.029515255145718906,
      0.0037942674828602887,
      0.014262436044202036,
      -0.002975880835354534,
      0.030357748565250232,
      0.0016537924599432166,
      -0.0015897220447228817,
      0.017777620377614815,
      -0.00478996062932033,
      0.009705818357009025,
      0.02115065068536418,
      -0.01904675705460696,
      -0.011911028733212875,
      0.014128335006726,
      -0.0014828988715461077,
      0.01799632720095803,
      0.00872968142115547,
      -0.0006303121116724413,
      0.018360025434768217,
      0.005818337927811017,
      -0.0028714315332976446,
      -0.0007171357139117446,
      0.02770097641629063,
      -0.016685705891287397,
      0.0032457920685100214,
      0.007746870000687177
    ],
    [
      0.01854247296700396,
      -0.0047710313950423775,
      0.004674703526256978,
      0.0078534682830384,
      0.0049340537276166205,
      0.014318069716522974,
      -0.010020976072114546,
      -0.006948078018405066,
      0.005367078762955514,
      0.019033383368800373,
      0.00023813129750589876,
      0.010898379346728587,
      0.0006037320780675729,
      0.015026287053521702,
      -0.016608919216192914,
      0.03673357865667243,
      0.015409209382854666,
      0.006878865080341202,
      0.0034706953886033762,
      -0.014484595926115057,
      0.04294954658614247,
      -0.019626706571434147,
      0.005974944992182431,
      0.0034184706623033214,
      0.005348370755260786,
      0.00022651486531002213,
      0.0058434835500212265,
      0.013578088904170805,
      -0.005311156254495079,
      0.01023157188288503,
      0.01266600492010212,
      -0.013805517331817263,
      0.001279546943369833,
      0.04046250684022201,
      -0.026365713701853227,
      -0.0064045511713664415,
      -0.0050006783821968616
    ],
    [
      0.014933990894591378,
      0.017685237472466746,
      -0.002125401012167927,
      -0.003010831044417919,
      0.009683727835480146,
      0.009029391928123574,
      -0.0021226060290694465,
      -0.007810417199204247,
      0.0005819617672019613,
      0.03982106779433149,
      0.006332791685558516,
      0.022758026092281378,
      -0.008246806534996133,
      0.054321862825692985,
      0.027654810316969883,
      -0.005706623634072904,
      0.030068830414092203,
      -0.00032558215317508334,
      0.0074877924702808326,
      0.02514004762026005,
      0.007330976584627178,
      -0.009812842712972681,
      0.004963096154257838,
      0.02282244323416384,
      -0.0015307066699068808,
      -0.0011389294882911145,
      0.002265753695015412,
      0.025561668685233546,
      -0.021765470349803896,
      -0.008128862389016356,
      0.033551794308479606,
      -0.020815667029822675,
      -0.005353896491007364,
      0.05052498307162202,
      -0.025019452534002815,
      -0.004082727332206813,
      0.004106665828122812
    ],
    [
      0.00616790908379392,
      0.010944625443578227,
      0.0016929662203422364,
      -0.0029055994549749735,
      0.0032968177991939867,
      -0.0016514158959640077,
      -0.0023217920055570015,
      -0.0027509965499610068,
      -0.007248928346056151,
      0.004959796488629433,
      -0.00518935597927817,
      0.01075335466736033,
      -0.005948043264261731,
      0.01275719239988864,
      0.004743174774815555,
      0.012652466928246273,
      0.00451243668320195,
      0.006692234710120376,
      0.00643230239337632,
      -0.002280778636054862,
      0.0102984404597059,
      0.0016456217519280254,
      0.0071329788785510165,
      -0.004063765143975621,
      0.01464467562647316,
      0.009205177433169833,
      -0.005473625110644444,
      0.00456493698108909,
      -0.002551907620988809,
      -0.00046776211966312515,
      0.01347992311142735,
      0.011926811847295136,
      0.007077630200113717,
      0.0027457315447652923,
      -0.006207536641389002,
      -0.004827539453285969,
      -0.006256285068108427
    ],
    [
      0.03421914604736293,
      0.03865171617000258,
      0.00949625368316942,
      0.029264435498545193,
      0.0059633249517106295,
      0.02640198842159066,
      -0.0082586769839003,
      -0.0016937400379726125,
      -0.01500607446227075,
      0.035547729224306185,
      0.054345963775132664,
      0.03357206395705557,
      -0.006922851733765674,
      0.06575693978403795,
      0.006727061718541514,
      0.04193141573301224,
      0.03283608080406808,
      -0.0012755731672531856,
      0.0053131026518678185,
      0.039117798493110055,
      0.009045383285135399,
      0.059155685829444665,
      -0.02944935540482389,
      -0.024046225945205196,
      0.04744135037405606,
      -0.004504775095545652,
      0.05097604195956001,
      -0.007749419892069811,
      -0.009799140929948822,
      0.0558426209584784,
      -0.008061886947201414,
      -0.008717170272060972,
      -0.0025155318262534854,
      0.0628406000618005,
      -0.022121288828553676,
      -0.004089319458171468,
      0.003517743895942964
    ],
    [
      0.08718048065900495,
      0.07801390900141422,
      -0.004719322695796332,
      0.07311709659484378,
      0.07357766118305237,
      0.0873985431881926,
      0.002908732959419138,
      -0.004994571338134175,
      0.002063001311063782,
      0.06962268802624677,
      0.05026637860214666,
      0.05963681897993888,
      0.03488011881601473,
      0.03238879854327908,
      0.030679091495426893,
      0.07282787453484242,
      0.044207694377218505,
      0.00779838501214721,
      0.003107426234221125,
      -0.007537383570042875,
      0.06747909538376462,
      0.01808438450711111,
      -0.0033694017462465612,
      0.0497592578373479,
      0.040697858695795314,
      0.0010984765441069463,
      0.046632557515462206,
      0.006096861696570378,
      0.029722161775427802,
      0.03721044593249221,
      -0.0016852899093563085,
      0.037790016030720436,
      0.005089608811397875,
      0.08496161574596427,
      0.004792774229027963,
      -0.002815553084037508,
      -0.004683078636103398
    ],
    [
      0.018584995427747834,
      0.028368205449459866,
      -0.009157783466771397,
      0.020893752075566596,
      -0.0015314626086161132,
      0.02613107542808197,
      -0.0028392939838737916,
      -0.003071425213449413,
      -0.001854704142957432,
      0.03137127908391419,
      0.032699260510998106,
      0.018069965769523848,
      0.004306930709561823,
      0.02953072979352204,
      0.006109105321040139,
      0.02029967461984941,
      0.02562610830250047,
      0.005579661266497726,
      0.004545786546482562,
      0.02076698403334134,
      0.022832560448175377,
      -0.009798661492010178,
      0.004866349010346048,
      -0.001074335226300141,
      0.03328070890572175,
      0.0018383259486994211,
      0.017320424293695826,
      0.006949800096563121,
      -0.01858224206811738,
      0.024943025431871678,
      0.010348775734221542,
      -0.018413476385561837,
      -0.004996988122224834,
      0.040984776202200125,
      -0.0238323664785045,
      0.006063129223113745,
      0.007824002267007106
    ],
    [
      0.022118037889660835,
      0.010794508035457954,
      0.0010521280625706633,
      -0.0015478650947810453,
      0.020869607198557544,
      0.022516826025184986,
      0.00035604303892296284,
      -0.006741700758933145,
      0.0038236561936768314,
      0.03487492396529318,
      0.010159240026135748,
      0.03054000578826393,
      -0.013596332139357147,
      0.04082035870317527,
      0.016070555676912956,
      0.02150935109083701,
      0.02588517057488261,
      -0.0007893310190875778,
      -0.006131271603382843,
      -0.001860805799534234,
      0.03236085188335609,
      -0.012441675570552788,
      -0.013118241262047668,
      -0.009785829411873032,
      0.023121947163579373,
      0.009180437573419633,
      0.00784100728520888,
      0.018124132456612596,
      -0.006433281541616702,
      0.0024655578916562646,
      0.016424516524844904,
      -0.015082774471551035,
      -0.005331724210686402,
      0.033176332933054,
      -0.027710424082116464,
      0.008596451482122658,
      -0.003537649612375014
    ],
    [
      0.025170808932222226,
      0.018163541329274214,
      -0.007312866586370057,
      0.01317104858091533,
      0.009960210364917083,
      0.026242323382937423,
      0.006771723384994417,
      0.005690596638415995,
      -0.0024215854771689432,
      0.028150539315964434,
      0.02064891232750064,
      0.024890137627854875,
      0.004389726094693286,
      0.029222035276257136,
      0.01851342475613467,
      0.006207024179128833,
      0.002868144252680979,
      -0.008441153787783809,
      -0.013023774385559017,
      -0.012558358394694708,
      0.03250138242923446,
      -0.010812428413009492,
      0.0007487138884940334,
      0.004590741647287838,
      0.014596920908563621,
      -0.003907001760099931,
      0.01130221922809785,
      0.00514197508860945,
      0.003775637385955273,
      0.005625894264199551,
      0.007988225674217956,
      0.010140321016757877,
      -0.0026613445805329095,
      0.02997804541886068,
      -0.014211364909156388,
      0.001929483622582143,
      -0.005523060266714279
    ],
    [
      0.027415099543454564,
      0.0315409897469424,
      0.0056636052384421345,
      0.014413767930021963,
      0.025531048355027626,
      0.031113750246243244,
      -0.0045464321986758306,
      -0.004913617601164011,
      -0.0006572354628429079,
      0.03388795152023542,
      0.0107587083618663,
      0.0218747932365982,
      0.0013712245207688442,
      0.03520692268339139,
      0.02433424316407115,
      0.023043904597389777,
      0.028117624308665233,
      -0.0018451406012715572,
      0.004068865286409795,
      0.007914062773857436,
      0.040808623617918635,
      -0.007449293856503083,
      -0.009466736330247902,
      0.03457641278584854,
      0.006473418872941513,
      -0.00811458283825448,
      0.01548990101845879,
      0.0064541656817459665,
      0.01065295707245124,
      0.012925362855816571,
      0.00563789471364206,
      -0.0007582511859225228,
      0.004553525044143853,
      0.04214730778924725,
      -0.0035276564716666195,
      -0.0006919218913815743,
      0.008658377224454955
    ],
    [
      0.02328018321847372,
      0.015829758903887683,
      -0.004683716888708887,
      0.03318416384693385,
      0.02187392312346112,
      0.024153127289196233,
      -0.007873241076359344,
      0.004352493565568143,
      0.009637788619012015,
      0.020880130468733195,
      -0.004272529522507224,
      0.013737932165342371,
      0.007318462195529703,
      0.016623531815053688,
      0.0056001185214112886,
      0.027783697659395756,
      0.008740580251626363,
      0.008006016959435305,
      -0.005986229643245842,
      0.015233277763280649,
      0.014816815414267881,
      0.018061736408694254,
      0.008347512386968963,
      0.014645449706958536,
      0.012109803444507867,
      -0.0039055396986633455,
      0.0077929953128873415,
      0.00893078914200597,
      0.013370464113367604,
      0.0015230160673157065,
      0.006998112412253491,
      0.013908348134197631,
      -0.002202731885423799,
      0.03574433233403757,
      -0.008190516227621871,
      0.008570388019502965,
      -0.006507380032916912
    ],
    [
      0.026258407701826338,
      0.022013135633833374,
      0.007317742555158487,
      0.03273172035289042,
      0.02287042452808897,
      0.018433035791224635,
      -0.008507097290220991,
      -0.012124102600160343,
      -0.0012122500306562178,
      0.034749379535083,
      0.019032569361906733,
      0.018245488507605906,
      0.0029483731000532047,
      0.033354608392817404,
      0.01039309105990504,
      0.0370320669022771,
      0.019179018448661916,
      -0.006922211472440387,
      0.004213945232579836,
      -0.0033620820397922335,
      0.029170180548405457,
      0.008447190276260726,
      -0.008100643688323335,
      -0.009472888666469103,
      0.01762057437131248,
      0.006873099029264475,
      0.028470630763166378,
      0.0013843814895188895,
      0.0094709387847447,
      0.02462112086980952,
      0.0017515923331673112,
      0.0066829341477435775,
      -0.0033257681135918935,
      0.04231541862855933,
      -0.032009902584680866,
      -0.0020133394320489603,
      0.009113820629672231
    ],
    [
      0.04229396127710586,
      0.051571919844971455,
      -0.007797361992250862,
      0.031571574883666804,
      0.04170980922432085,
      0.04489267567659825,
      -0.006047984899849171,
      -0.0050302131590834855,
      0.004049965202666565,
      0.03355103678145153,
      0.017986050173070794,
      0.02806117963089934,
      0.025845648276051403,
      0.03381446550742538,
      0.024010960209363462,
      0.04478113035592544,
      0.03978805170359679,
      0.0020870635388666754,
      0.010299361458422866,
      0.016634072212557645,
      0.017246357367647087,
      0.020263066765663078,
      -0.008417438411516237,
      0.029272219629687922,
      0.008180316657401529,
      0.0019822944770721464,
      0.03406369897461898,
      0.003414829971653684,
      0.023894617900290648,
      0.016450841455178184,
      0.008734387825583206,
      0.010483994166654664,
      0.006589437377549362,
      0.05250245784327823,
      0.0028361090251182858,
      0.005228030930237286,
      0.007434005096477033
    ],
    [
      0.024525543989306384,
      0.026693314376835295,
      -0.0010880689654036886,
      0.034194235621882355,
      0.012524744867675863,
      0.029143599325008727,
      0.003839705134789478,
      -0.006931184463426565,
      -0.0016726858023975292,
      0.029230431915391018,
      0.052497485404063675,
      0.0069681830037653944,
      -0.03310987518777981,
      0.01675743710968739,
      0.05840528444227946,
      0.05851931872576661,
      0.07168110020347553,
      -0.0015429671430425892,
      0.0029682028393453776,
      0.036366820222847575,
      0.012378438981955224,
      0.006520395797221962,
      0.009914878020062265,
      -0.009445157271744765,
      0.03237038945608425,
      -0.008316254727402217,
      0.03333625407090571,
      0.021301884521435735,
      -0.03075150038501344,
      0.043505778307749356,
      0.03549064923155808,
      -0.029638673839745923,
      0.002242864141399176,
      0.03623148291093696,
      0.0007143322903760806,
      -0.0016252019453383594,
      0.008961082129350898
    ],
    [
      -0.04062299316767608,
      -0.03391775349240732,
      0.011436314181940367,
      0.02910451195764544,
      0.07756265390358215,
      -0.03883375203603605,
      -0.0844967050673087,
      -0.09706192850448153,
      -0.08421889497307833,
      0.08843295066651985,
      -0.006381076914351389,
      0.07716526124004366,
      -0.08789224323619056,
      0.02868049961774212,
      -0.15325269393574095,
      0.001483196069262345,
      0.010221128536482767,
      -0.004480333851016425,
      -0.0013521102014743078,
      -0.0031042296486806812,
      0.11219466465198101,
      -0.0011018839756874194,
      -0.15425393787876407,
      -0.05661760234176412,
      -0.004013332589198786,
      -0.0017783895963658352,
      -0.008448847352622807,
      -0.0016183409440360353,
      -0.048747655968492024,
      0.004008479607752594,
      0.014845493831605102,
      -0.04440924666446512,
      0.007522875910141261,
      0.1101219268429898,
      -0.16812823307787275,
      -0.003761201509831711,
      -0.0007369255313125784
    ],
    [
      0.04297749024086969,
      0.040368242509149,
      -0.002805714315692911,
      0.04222847240135327,
      0.03193306029712696,
      0.04169056263092763,
      0.008242933753387995,
      0.006999484063217438,
      -0.0035453192278855662,
      0.022835793864627276,
      0.011285252313001913,
      0.018506948926691108,
      0.02114296068121089,
      0.03244847975308715,
      0.005868573303398841,
      0.024513085334722094,
      -0.0038429555669037743,
      -0.005921214374352319,
      0.005399946539572171,
      -0.0006850456662633089,
      0.03662529138814001,
      0.021129897716754588,
      0.009584714107608751,
      0.017741971224137034,
      -0.006299213731476572,
      0.005682942291311697,
      0.003798992880100738,
      -0.003234620416830079,
      0.028332085552836936,
      0.00607216247313485,
      -0.008123647354540417,
      0.03353913609361721,
      -0.005055344898704559,
      0.04850122127884887,
      -0.0016356274898509,
      -0.004792900481889655,
      -0.009119849796690978
    ],
    [
      0.01436451945689549,
      0.015091552532451431,
      0.003504528725981157,
      0.028632160711295214,
      0.01754326567504111,
      0.010648247060253099,
      -0.009867092683947143,
      0.0021241441927618856,
      0.0027182374585145415,
      0.03392735923219884,
      0.03205538816851329,
      0.023834069584864927,
      -0.006088627345913315,
      0.005312684249123041,
      0.010895144652274294,
      0.0317619774777101,
      0.037200448467834366,
      0.008123225638281927,
      -0.0006502612648701615,
      0.008935481394082536,
      0.037472498937257154,
      0.014896473904706322,
      -0.0196901841529741,
      0.0021238839879606838,
      0.012306116381544207,
      -0.006584182188846932,
      0.01729420023318725,
      0.009301514022039771,
      -0.0036454407602107847,
      0.024576542999089804,
      0.003788661447841348,
      -0.016449678571191065,
      -0.0009021660270633804,
      0.0435753214426349,
      -0.02269281793801424,
      0.009185248096257372,
      -0.00689390203696163
    ],
    [
      0.039573445786754716,
      0.04371527985179078,
      -0.0017624705306333328,
      0.04426118397101389,
      0.0447687113516302,
      0.05190182903071068,
      0.002657936256872767,
      -0.008694846700156108,
      0.0018988382224225991,
      0.028367887486265817,
      0.0028406911178192823,
      0.02180872216703135,
      0.030465897520966498,
      0.008232476900166654,
      0.0017021083287936303,
      0.019485384740843333,
      0.007079007958396096,
      0.00029585964784069503,
      0.00791401948817787,
      0.0217424369480074,
      0.023957409061366758,
      0.0160907267185861,
      0.008414181224376266,
      0.02436187432036279,
      -0.002333935507904672,
      0.019099559334998545,
      -0.003676076226040848,
      0.005070710392901461,
      0.04262062636462781,
      0.008876076089850206,
      0.006000847341180855,
      0.031473053298466544,
      -0.004361047888465006,
      0.03590560338037914,
      -0.004995521245397898,
      0.009603421077038167,
      -0.008414768055796154
    ],
    [
      0.021867428407360126,
      0.021272280615956478,
      -0.008409359649093437,
      0.01204365718143413,
      0.03142269957915947,
      0.033871025247229174,
      0.003095716643164401,
      0.0068295563401034355,
      -0.009419303264861173,
      0.02745117503417239,
      0.012216730063651935,
      0.013603924064670482,
      0.005486222500759292,
      0.028867638693950592,
      0.015752135778094947,
      0.0009225729941638311,
      0.00029688129223387656,
      -0.00528112374446007,
      0.009151331062323334,
      0.011054384645299002,
      0.035063983019210085,
      0.0029123725208380705,
      0.0008204372067363418,
      0.030764337233117986,
      0.002938618363220666,
      -0.007155748100312087,
      -0.008908471587256057,
      0.014543481778862515,
      0.011441289455342096,
      -0.006208032421969281,
      0.015808001545454343,
      0.025414623862515792,
      -0.00902400217592089,
      0.045523592780791614,
      -0.008341559821415543,
      -0.0023522937627462603,
      -0.007858788604545896
    ],
    [
      0.0420231600409108,
      0.05072663901741375,
      -0.004114452750378274,
      0.027471760057985642,
      0.015580343743379502,
      0.03672933579729336,
      -0.0014673446885040892,
      0.010254820720618712,
      -0.006976444500317623,
      0.029052964672184826,
      0.03300257435332837,
      0.045373232471972655,
      0.02816643121254261,
      0.019135353280028473,
      -0.0019619011567868156,
      0.05250186861404774,
      0.023917934019215763,
      0.004068234391044421,
      0.011373176882992685,
      0.007598025149002816,
      0.019788600125165572,
      0.02630819260354638,
      0.005638734764224522,
      0.011989098613779565,
      0.01778776757948762,
      0.015870366081819725,
      0.023062155719243995,
      0.0006887184763326119,
      0.026668972877244755,
      0.018225548681385227,
      0.0018862167441216476,
      0.028665284030077405,
      0.006966879032191011,
      0.05008447018542731,
      -0.003000464385343799,
      0.006800851964806164,
      -0.00664163391040244
    ],
    [
      -0.1257231107093627,
      -0.12699378945450654,
      -0.008938718795241898,
      -0.11579117361185919,
      -0.0706093422108359,
      -0.11364486833339363,
      -0.007072049663201646,
      -0.012489961760095694,
      0.008032151705653051,
      0.02845791087039962,
      0.015480771587983888,
      -0.0808903425104292,
      -0.10449716489621157,
      0.014802414510851108,
      0.014844917517802973,
      -0.14919237396405755,
      0.016478715095036643,
      -0.007073240192165078,
      0.0020077051547965005,
      0.00463650512669043,
      0.020913598560777187,
      -0.14435659030396925,
      -0.0036374359442212035,
      0.026127855187267613,
      0.002020735706536953,
      -0.14039000410986788,
      0.008723022243978697,
      0.024898617325028936,
      -0.1319913159338619,
      -0.004264123592359246,
      0.027189261018111897,
      -0.1433007525172294,
      -0.007536416411091458,
      -0.12102480447944972,
      0.004644306450402303,
      -0.0031797336445971115,
      0.0029055506361456707
    ],
    [
      0.0435617185319903,
      0.05418166467865024,
      -0.000941939632613676,
      0.038694504190634554,
      0.0361791206296228,
      0.055298941937294926,
      0.010151701625124408,
      0.0019323959233031433,
      -0.0007478107888774347,
      0.03584990328765029,
      0.020150534410625476,
      0.033736775595955275,
      0.022822867461893586,
      0.0432937986196216,
      0.002850570821470822,
      0.06194281761702509,
      0.035426104408618105,
      0.009625447403612252,
      -0.0026676870116593898,
      -0.005706994227268117,
      0.0227469836481657,
      0.03381794101423892,
      -0.0013781157534969533,
      0.022183039513407398,
      0.02337007075376127,
      0.011167891891966295,
      0.020550858243053898,
      0.013313485044396632,
      0.00814850842832864,
      0.021989617441213388,
      0.016241237228413176,
      0.01767083153976829,
      0.0016883151970960159,
      0.04777713660380825,
      -0.012541056263415387,
      -0.002581571927025568,
      0.002293618470462144
    ],
    [
      0.0129066273757132,
      -0.002932850187922397,
      -0.0035871110208082133,
      0.012921238153151911,
      0.005805785155095291,
      0.020917194418114758,
      0.007573106552290445,
      0.0009404524827762886,
      0.004681438823990203,
      0.018715275703920183,
      -0.009251947090325468,
      0.01684068593830413,
      -0.006238412999641962,
      0.004883598898398896,
      -0.015241529758598693,
      0.04337068793304489,
      -0.009143541198664397,
      -0.0004929502101365963,
      0.007805973635117496,
      0.0010936584497714076,
      0.020828423168609257,
      -0.0004421422249550628,
      0.0019769829336622503,
      -0.0022864186190636217,
      -0.009439004988077478,
      0.011124856124710966,
      -0.030231528319140725,
      0.020321518364726555,
      0.020497761996958574,
      -0.02489777693128342,
      0.011448399937031516,
      0.027058860269031548,
      -0.0013530235609315235,
      0.009016539447680457,
      0.016869763513424535,
      -0.0012758144308729676,
      -0.008059231543480124
    ],
    [
      0.0015406519353839895,
      -0.004217294416971051,
      -0.00832913934225292,
      -0.018863920824908988,
      -0.006155771581977357,
      0.0017939705693378674,
      -0.008739482796222883,
      -0.009660175336361638,
      -0.0004608315493846029,
      -0.009662283674666532,
      -0.003722612020154852,
      0.008697363085505649,
      -0.0003398347551006259,
      0.014991739354433526,
      0.0063695327468268744,
      0.002837537715208418,
      -0.017572094175857624,
      -0.0021625720027055213,
      -0.008230839810983359,
      0.012059400244445562,
      -0.006931902895489185,
      -0.0018776059666419757,
      0.00047451902023186443,
      -0.015797333772614594,
      -0.008294337514044774,
      0.0038785155706747036,
      -0.012235211677610158,
      0.007147305893631174,
      0.0043502173190395,
      -0.015918398071653524,
      0.009641502418513864,
      0.006798176587814075,
      0.0005676138738675406,
      0.0058181545700586555,
      -0.023841161442823187,
      0.00799702772319722,
      -0.007342091265033677
    ]
  ],
  "bias": [
    0.021057980819157322,
    0.030784753010225575,
    0.011386300234330335,
    0.019732744153991448,
    0.022753735726939416,
    0.01650331049797892,
    0.020347910102865657,
    0.012287915421720688,
    0.012693085265190147,
    0.012614371283668841,
    0.007903895466274628,
    0.03012445973660329,
    0.08409891323086018,
    0.020917401761809333,
    0.013131581970140041,
    0.017760593741602493,
    0.03736108852574555,
    0.027269220122962255,
    0.021462518463632122,
    0.05019402968856484,
    0.027604572058853222,
    -0.04868483543396317,
    0.04245868113115554,
    0.015773257945254474,
    0.04327531143901027,
    0.027272387734821178,
    0.04422585741010194,
    -0.12104094127790671,
    0.0479138703677433,
    0.0201162635148091,
    -0.00804158637305402
  ],
  "config": {
    "episodes": 5,
    "max_steps": 50,
    "seed": 3,
    "learning_rate": 0.03,
    "gamma": 0.95,
    "gradient_clip": 5.0,
    "epsilon_start": 1.0,
    "epsilon_end": 0.05,
    "epsilon_decay_episodes": 180,
    "eval_every": 0,
    "eval_episodes": 20,
    "n_features": 37,
    "n_actions": 31,
    "feature_names": [
      "bias",
      "battery_pct",
      "battery_drain_rate",
      "solar_a_output",
      "solar_b_output",
      "bus_voltage",
      "star_tracker_error",
      "gyro_error",
      "sun_sensor_error",
      "fuel_units",
      "signal_strength",
      "battery_temp",
      "episode_progress",
      "science_a_online",
      "science_b_online",
      "heaters_online",
      "transponder_online",
      "last_action_error",
      "last_action_refused",
      "last_action_diag",
      "attitude_mode_nominal",
      "attitude_mode_thruster",
      "attitude_mode_tumbling",
      "rw_status_nominal",
      "rw_status_degraded",
      "rw_status_failed",
      "transponder_status_nominal",
      "transponder_status_degraded",
      "transponder_status_offline",
      "link_bandwidth_high",
      "link_bandwidth_low",
      "link_bandwidth_none",
      "mission_status_nominal",
      "mission_status_degraded",
      "mission_status_critical",
      "mission_status_recovered",
      "mission_status_lost"
    ],
    "action_space": [
      {
        "index": 0,
        "command": "shed_load",
        "target": "science_a",
        "label": "shed_load:science_a"
      },
      {
        "index": 1,
        "command": "shed_load",
        "target": "science_b",
        "label": "shed_load:science_b"
      },
      {
        "index": 2,
        "command": "shed_load",
        "target": "heaters",
        "label": "shed_load:heaters"
      },
      {
        "index": 3,
        "command": "shed_load",
        "target": "transponder",
        "label": "shed_load:transponder"
      },
      {
        "index": 4,
        "command": "restore_load",
        "target": "science_a",
        "label": "restore_load:science_a"
      },
      {
        "index": 5,
        "command": "restore_load",
        "target": "science_b",
        "label": "restore_load:science_b"
      },
      {
        "index": 6,
        "command": "restore_load",
        "target": "heaters",
        "label": "restore_load:heaters"
      },
      {
        "index": 7,
        "command": "restore_load",
        "target": "transponder",
        "label": "restore_load:transponder"
      },
      {
        "index": 8,
        "command": "switch_to_backup_battery",
        "target": null,
        "label": "switch_to_backup_battery"
      },
      {
        "index": 9,
        "command": "reset_power_controller",
        "target": null,
        "label": "reset_power_controller"
      },
      {
        "index": 10,
        "command": "reconfigure_power",
        "target": "solar_a",
        "label": "reconfigure_power:solar_a"
      },
      {
        "index": 11,
        "command": "reconfigure_power",
        "target": "solar_b",
        "label": "reconfigure_power:solar_b"
      },
      {
        "index": 12,
        "command": "stabilize_attitude",
        "target": null,
        "label": "stabilize_attitude"
      },
      {
        "index": 13,
        "command": "switch_to_thruster_control",
        "target": null,
        "label": "switch_to_thruster_control"
      },
      {
        "index": 14,
        "command": "desaturate_wheels",
        "target": null,
        "label": "desaturate_wheels"
      },
      {
        "index": 15,
        "command": "recalibrate_star_tracker",
        "target": null,
        "label": "recalibrate_star_tracker"
      },
      {
        "index": 16,
        "command": "cross_validate_attitude",
        "target": null,
        "label": "cross_validate_attitude"
      },
      {
        "index": 17,
        "command": "switch_attitude_reference",
        "target": "star_tracker",
        "label": "switch_attitude_reference:star_tracker"
      },
      {
        "index": 18,
        "command": "switch_attitude_reference",
        "target": "gyro",
        "label": "switch_attitude_reference:gyro"
      },
      {
        "index": 19,
        "command": "switch_attitude_reference",
        "target": "sun_sensor",
        "label": "switch_attitude_reference:sun_sensor"
      },
      {
        "index": 20,
        "command": "recalibrate_imu",
        "target": null,
        "label": "recalibrate_imu"
      },
      {
        "index": 21,
        "command": "query_power_level",
        "target": "battery",
        "label": "query_power_level:battery"
      },
      {
        "index": 22,
        "command": "query_power_level",
        "target": "solar_a",
        "label": "query_power_level:solar_a"
      },
      {
        "index": 23,
        "command": "query_power_level",
        "target": "solar_b",
        "label": "query_power_level:solar_b"
      },
      {
        "index": 24,
        "command": "query_attitude",
        "target": null,
        "label": "query_attitude"
      },
      {
        "index": 25,
        "command": "query_thermal",
        "target": null,
        "label": "query_thermal"
      },
      {
        "index": 26,
        "command": "diagnostic_scan",
        "target": "power",
        "label": "diagnostic_scan:power"
      },
      {
        "index": 27,
        "command": "diagnostic_scan",
        "target": "attitude",
        "label": "diagnostic_scan:attitude"
      },
      {
        "index": 28,
        "command": "diagnostic_scan",
        "target": "comms",
        "label": "diagnostic_scan:comms"
      },
      {
        "index": 29,
        "command": "safe_mode",
        "target": null,
        "label": "safe_mode"
      },
      {
        "index": 30,
        "command": "resume_nominal",
        "target": null,
        "label": "resume_nominal"
      }
    ]
  }
}